{"format": "daslab-mlp-1", "activation": "tanh", "layer_sizes": [4, 48, 48, 4], "inputs": ["compressor_pressure_ratio", "turbine_inlet_temperature_K", "mach", "altitude_m"], "outputs": ["specific_thrust_N_per_kg_s", "TSFC_kg_per_kN_hr", "overall_efficiency_estimate", "compressor_exit_temperature_K"], "output_labels": ["Specific thrust [N\u00b7s/kg]", "TSFC [kg/kN\u00b7h]", "Overall efficiency", "Compressor-exit Tt3 [K]"], "output_transforms": ["none", "log", "none", "none"], "input_ranges": [[6.0, 40.0], [1100.0, 1800.0], [0.0, 1.8], [0.0, 14000.0]], "x_mean": [22.695121307234444, 1458.9982755256804, 0.8768741095430492, 7123.374228871304], "x_std": [9.755927213150295, 199.128813672094, 0.5134217692375562, 4016.387959488266], "y_mean": [636.4321784145001, 4.851940952608094, 0.1658792280910488, 767.9457931887213], "y_std": [214.67211758333278, 0.18338012496340672, 0.08119883962053229, 174.72214702202098], "weights": [[[0.05121592969912727, -0.23432009121727274, -0.00562344833166583, -0.13432470239613067, 0.1785311336790565, 0.11349614303223211, 0.24539916240523443, 0.003071598164644551, 0.17307906277607218, 0.3246708241920899, -0.0021818447043526843, -0.2690999038956051, 0.0005323142296050043, -0.12688699115626964, 0.30633118746241955, 0.008105414865557825, 0.5401237078790595, 0.04742302323341375, -0.00226518175629367, -0.21797179532892882, -0.27055027143314037, -0.21746341482407916, 0.5601504374439433, -0.10584792354284886, -0.0007646059926381811, 0.0013877345131029007, 0.5463139703919949, -0.07093337103688319, -0.3487780788268895, 0.006088448716821734, 0.003260739528810969, 2.635803470451767e-05, -0.34333834135796126, 0.15988703492597447, 0.0006661184216268831, -0.31464604485428993, 0.004506322845455232, -0.00102030001363838, 0.2704327523854745, 0.0025686825886197546, -0.0016770527671917143, -0.15116085426794953, -0.030161005971903444, -0.33224099309608807, -0.9214972346513597, -0.020078784975999547, -0.3687512801518334, 0.16716051981304544], [-0.15997335210019947, 0.323830255747919, -0.001409136947234471, -0.26392369758631545, 0.5721126783578492, -0.7892208129869882, 0.2540167823772692, 0.002692152501768571, 0.02592613085161128, 0.6235921531076228, -0.003833730701053652, -0.3043430395505041, -0.0009708786559045953, -0.16530633620512653, -0.2057270657166101, -0.011918852252729536, -0.40836839776153216, 0.15157922872249374, -0.002551877164974921, 0.3624628091495393, -0.03935120129276705, 0.011007840018337899, 0.07382842517969296, 0.5309975463167093, 0.0025338943144994908, 0.0006401663063480537, -0.22489970954405988, 0.03904290041791395, 0.3959621662774844, -0.0014552055643482099, -0.010297233453828488, 0.003198010102210259, 0.32531963199978187, 0.35426393379963667, 0.002134158534167855, 0.1496596274222889, 0.0018832291500892875, -0.0013021894255675142, 0.44380035637415854, 0.0003581180367871283, -0.003076524112928637, 0.24401992452186536, 0.2793052538501202, 0.717346444969496, -0.0030344630822571553, 0.04788879156179648, 0.12239285966820246, 0.10745914065505317], [-0.8442887590432312, 0.27842499544539906, -0.0017168473874077778, 0.10998069196830346, 0.1456002154381578, -0.5352235383556183, 0.24479748079282176, -0.007517603403949982, 0.11274334063576273, 0.023316239269340528, 0.002636226882521807, 0.3512040225277148, 0.0005789067329721932, 0.1498932362656924, -0.12427117854330898, -0.007131631320797478, 0.3244578036505938, -0.14172139295091887, 0.004660058336708617, 0.12842291528647332, 0.34299955970484636, -0.8972084565204576, 0.5075886894517172, -0.7818425033474063, -0.0013067685431154474, -3.9406599267542865e-05, 0.6044145845300132, -0.1545065421303602, -0.5454620833360015, 0.007034574910398976, 0.0029358630362288974, -0.004060694438108709, -0.6291535265980487, -0.4838320197869477, 0.0012346268027479442, -0.1930198306873912, -0.004658680221192671, 0.004615498307702055, -0.7282723453561815, 0.0026316287823532755, 0.004380204367110237, 0.3656654867184982, 0.4727801892475588, -0.23419448171585114, -0.03034707241674934, 0.007710906429489035, 0.29778063647635544, -0.35592309332378047], [0.013334530871260391, 0.3176327183943629, -0.0015863063778256883, -0.022400565564784945, 0.13617298693408666, 0.13805935111259238, -0.1840750672931445, -0.0015334471462735279, -0.5719374234725313, 0.20322470489166541, 0.0008401950774086536, -0.1497544982975268, 0.0022704000822119327, -0.6391840339754056, 0.03262226762597563, 0.0027228950304597887, -0.2616533943703079, -0.11569567193094588, -0.0002008856290640427, 0.3732335023717041, -0.07675234864231723, 0.01561551123627458, -0.0348225704508447, 0.47942161325887506, -0.0008569259521768352, -0.002191745682431594, -0.21293287721256635, 2.584189763141952, 0.10812508347176329, 0.002001672880722761, 0.006132809836171408, -0.000579926046192499, 0.14781657922144698, 0.6574897296764863, -0.001736261430030685, 0.04875670395658541, 0.0006530309615068743, -0.0010696074788513876, 0.2658092615569567, 0.002608278515200114, 0.0016595223333482577, -0.12964701695074177, 0.032290563433857535, 0.16371448673883338, 0.006132244978224035, 2.0998040921265058, 0.004376157369953343, -0.1005300236870882]], [[-0.033641152516050585, -0.30467709165671014, 1.0235485954511456, 0.3314424568644808, -0.3306736077718641, 0.06282376988504947, -0.3874466866397679, 0.5166766767133465, 0.6805929448041094, -0.3523754489228539, 0.32644570043521526, -0.3008210095984881, 0.08508631275746864, -0.40377669004582667, 1.1382118988429275, 0.16276631780547668, 0.21022563668736302, 0.021966412260497736, -0.4589925887376285, -1.9499990490558645, -0.7522131334946173, 0.2435136461897541, -0.07097356748469305, 0.18326118267983862, 1.0151556532621777, -0.020999245006369547, 0.060906693062868736, -0.1747542124821392, 0.5009052041989174, -0.45834440197290954, 0.044642536215661395, -0.43845695622291087, 0.45829236961038083, 0.43800032473064643, -1.9788147242330394, -0.10902450793037811, -0.6518948602117062, -0.129559820321632, -0.055089657256896366, 0.5990821293503981, 0.45961446498278785, -0.36165317142255526, -0.3726356738035992, -0.043388085474158095, 0.657926892516746, 0.05062071109776992, 0.2594579835906141, -0.0012461999786763228], [0.0004335003446306384, 0.4696027350396341, -0.05945046563513073, -0.7928325179442088, 0.1875611746067505, 0.20611962283025437, 0.25600288460114196, 0.150144389836593, -1.0365540841088314, 0.30067630689176217, 0.01850755095163722, 0.026479514871804544, -0.10922137996730193, 0.2969324605527368, -0.5657145503402854, -0.5128289159959754, -0.3441178311558241, 0.28651431779995584, 0.2670509751450005, 0.4190632102221668, 0.6427703411686259, -0.40350771383760603, -0.12563071305184104, 0.03657770231708879, -1.3852478658520975, 0.11905600190544412, -0.01963516384599391, 0.07738642298476965, -0.32671937803941214, 0.2795062551590192, 0.07555910951648998, 0.264727963974888, -0.11469324173505085, -0.3264488057005025, -0.3907787998907673, 0.07271350558701657, 0.5539500520200197, 0.09764386825799629, 0.5944739559659844, -0.6985700237223309, -0.22841837724407296, 0.8992146694844478, 0.16888078852622931, 0.3913616435059411, -0.6721833890671035, 0.02904564895969554, -0.17468013291288423, 0.16321898407328], [-0.04265422270741033, -0.07243479751374739, 0.005462565171835864, 0.07000615279406432, -0.04089584485107115, -0.03973599659342578, 0.2777108464617359, 0.014333583016655145, -0.8114035247701599, 0.010352010961038095, -0.0184271225892338, -0.04672897872319819, 0.029697126888288895, 0.040809259064155556, -0.1426956128636569, 0.08293281770983642, -0.017728405990969594, -0.0077191260174178395, 0.08313671201650027, 0.004161563442392158, -0.04065366662240737, -0.007414244891211324, 0.02901451852793659, 0.011384694296685264, -0.034228417765234304, 0.0729999541655863, 0.21907203148314322, -0.018524329761241246, 0.1179339284183568, 0.03570861140836129, -0.07723269143880575, 0.03238170559297233, -0.009707142957513355, 0.032035836853557535, -0.34226492184072904, 0.1012557797462288, 0.05729655625716523, -0.05280480085895509, -0.0001660684579593763, -0.02016452742277941, 0.013337094761053847, 0.10316045038609296, -0.013356578346363421, 0.060566147555711866, -0.6250416546417289, -0.01943003014407012, -0.20588002000846414, 0.007099601961402318], [0.14581003384975652, 0.020552831054787588, -0.16212320562391297, 0.333080145992017, -0.12642672821224876, 0.06637709739789795, -0.15321102888113858, 0.24177730874362874, 0.17124199226466152, -0.07790192435088861, -0.38956826358257035, -0.06729182755337247, -0.013713617201748062, -0.2911329771560943, 0.28779912748458025, 0.028757782769425075, -0.08550390272006801, 0.15962170782655252, 0.16441022175050501, 0.24919035427866335, 0.17101363893823612, -0.181643824598912, -0.07738018265587411, -0.061341129457827326, -0.12251205818804668, -0.07050502141766507, -0.00842317595987762, -0.024502672549235403, 0.0219270728423428, -0.4148588690365658, 0.0407529829534231, -0.0838643979119324, 0.4339019649211656, 0.14240055827633874, -0.3766528014376109, 0.042045028367594356, 0.057341121982404805, -0.04500419669541324, 0.002920653392799425, 0.8641097676126812, -0.44596763395588235, -0.6624511121744036, 0.24549737166689664, -0.05085177459481084, 0.012574569465769085, 0.016604155723565023, 0.1876160798702234, -0.1035230604209541], [-0.02624774096882981, 0.16205253379834847, 0.12006658174113412, 0.07675930193072966, 0.5174499735727757, -0.21070486625396487, 0.5888969739576548, 0.04071975028226996, 0.9003211877722952, 0.44936635012849263, 0.5160662514330835, -0.36997750981957384, -0.26433182343674166, -0.037628550762732, 0.53888844834857, 0.12291493876747822, -0.36200272606988376, -0.0211225700253911, -0.4376709870605286, -0.25320859088158143, -0.31473370012541096, 0.3074530474460395, -0.04592158063276817, 0.20919806322015966, 0.22431306692077857, -0.011352969964807667, 0.1105057062136242, 0.5623298532373963, 0.6446058678008515, -0.147016817835377, 0.117568761394678, 0.25170957856100584, 0.8756747122170176, 0.34983565276716416, -0.31530852066799603, 0.14090724570155108, -0.10346552196234697, -0.8669288521387541, 0.24574935569982345, 0.34443369588466854, 0.1052508941793847, -0.5728815163947575, 0.13627111891753615, -0.036189772599158475, 0.480513128624225, -0.22228622377747628, 0.8731591270380502, -0.1218985341324348], [0.03937921147298315, -0.37166864949500683, -0.08911692062755458, 0.6279104866136753, -0.12718732609092084, 0.1845707894496949, -0.20967743283782062, 0.19240532375814556, 0.7337242098419247, -0.19073224939301217, 0.18810725052043148, 0.10106189775408099, 0.2537570725647472, -0.6140612221614432, 1.3073549783172236, -0.12430337447563593, 0.41607733293039584, 0.03154018837116093, 0.007801983968888827, -0.07902150976337632, -0.4398147266802845, 0.008365120995835142, -0.04611534856327737, -0.023771666343786402, 0.3732918810011014, -0.00649718116928788, -0.04332497562278174, -0.2913925010184003, 0.9733015428140861, -0.342105155906125, -0.08459431644725608, -0.007712686509287274, 0.18741818794758644, 0.6663514079480567, 0.08812442509297877, -0.13626419080245308, -1.0495349676046686, 0.38847257889270975, -0.23383616819880526, 0.43148880696212627, -0.10350329126255912, 0.1865349422446727, -0.03911377075723394, -0.011387476991507736, 0.6681606640263786, -0.020397353003464534, 1.3865833148647224, -0.20387507670029384], [-0.02638726579769473, 0.22209095365198422, -0.0287940785886224, 0.05421283676010773, -0.07961938366892989, 0.1893899514907374, 0.20083807895153236, -0.11043944936483666, 0.01628638743848422, 0.015415905243345974, 0.30078534870771434, -0.8373151782422844, -0.07336919289337941, 0.2213677130842642, 0.1583893378941181, 0.3802961109539781, -0.15660786469679056, 0.1744384624833014, -0.1524780894748646, 0.03726573317990384, -0.6018842411978077, 0.1620623510322155, 0.240788297901279, -0.1190872726730859, 0.21573229240386224, -0.09258956775666885, -0.05205069219900434, 0.17159752451955282, 0.1889457421371423, 0.15941767407422394, -0.08790133390706642, -0.12702250428636694, 0.0017025856384724897, 0.4898818893350007, -0.033797342388722784, -0.16033043998188531, 0.39659494091724706, 0.0932188108769993, 0.21708548499275257, 0.17018678604973542, -0.33825186161657905, -0.06228861974471564, -0.2592981280511661, -0.7666269158131553, 0.1962430859210814, 0.05915980052828576, -0.28433976771087804, -0.11562059671981592], [-0.33506489073650186, -0.06019465131895756, -0.028888993953394025, 0.032118032556106964, -0.063400119285651, 0.016852820087000748, -0.19480868807326107, 0.018926489211178402, -0.031362414755801156, 0.007936402581342412, 0.01818899582199448, -0.019573245146070156, -0.0009200630794773863, -0.04441046426917909, 0.10959671352811681, -0.213296664896312, 0.016251586814396764, 0.014198313994870447, 0.025980979256538507, -0.009770903555471633, 0.027118693632762432, 0.01328869279441383, 0.024709105255691224, -0.0026669946758699895, 0.06428126231297661, 0.26959356882177105, -0.24138515778523487, 0.006155468529216979, -0.11442616905301123, 0.012362789598732979, -0.09021376422611363, -0.006453677332666677, 0.14128395313793968, 0.010872016500017305, 0.08696028639618311, 0.14165975187264898, -0.02287923700646051, -0.05592375047448076, 0.024263739623132014, -0.2755577160232842, 0.004779769614682912, -0.006928117066933762, -0.05669016170917352, 0.03241543930067678, 0.4624445911394377, -0.02060012552400532, -0.20801624475475106, -0.023959599619136136], [0.09886204444490225, -0.16048998829590458, 0.022284306418610046, 0.22279953012337442, 0.3207551501015158, 0.2541333240292319, 0.19208413432193716, -0.1390540018556329, 0.6951265516880651, 0.09107606852445897, -0.3524046480051918, -0.062102422328239676, 0.13649969808743911, -0.4343893715492685, 0.45451226359634184, 1.0285189643587784, 0.32331569641730273, -0.9099024698001994, -0.07419737918838654, -0.015644335472390802, -0.3401096483167255, 0.209936602731208, 0.03485635866644396, -0.09051198094947019, -0.2139834065123151, 0.06912123712234111, 0.02047434218431437, 0.2612255648624321, 0.37003914896716084, -0.29834027258958945, 0.08639845047598366, 0.1533874142329596, 0.0759481862764237, 0.019238943516315846, 0.44023627551612876, -0.05719793650119305, -0.3097988273967646, 0.1487540227812622, -0.5044683329604471, 0.15966252175555792, 0.053209024178488884, -1.0241577733491634, -0.40117728820666093, -0.3146519821359476, 1.050265852072826, -0.3583665654136675, -0.33905740705814, -0.17395760285449643], [0.25140187465083336, 0.055015662114866644, 0.03264148309535882, 0.07603037173197386, 0.014633012144278548, -0.14581318373301888, 0.3320493675199103, -0.10372056053352109, -0.4959544299923482, -0.3061350161292717, 0.17649906040299923, -0.008956420175163588, -0.2625674190653878, 0.3414155976851635, -0.3471122851750566, -0.27551787394592314, 0.15961006166820896, -0.0685477569088552, -0.23953780438926717, -0.009403082670867176, 0.30146691471381565, -0.005157655853643343, 0.1305140994000438, -0.0728046183950271, 0.7988836777753439, 0.09095218671258172, 0.00465155246839826, 0.21631623923245497, -0.46334061833238116, 0.2339524430384734, 0.14066442555214942, 0.19955339813194944, -0.4271743190289624, 0.11706479651096685, 0.5221320263460525, -0.08873096281649206, 0.516711040238179, -0.1722601721506466, 0.17655724761929859, 0.3165578416944683, -0.008060717653274138, 0.45731598449410454, -0.05509263917712482, -0.19400703584169476, -0.7286983303910902, -0.023964425971682194, -0.3891780967371683, -0.22817481084539046], [0.03315982083962029, 0.0014191169473682535, 0.005469654980877523, -0.003069407853723204, -0.01959551342931863, -0.02607978201129735, -0.03139551189950827, 0.007680633541945479, 0.4409210089506447, 0.0009392847038090972, -0.001901880490295157, 0.007557009994366554, -0.012452550208867121, 0.0382233174976068, -0.08539512434697795, 0.1680198255688938, -0.04137310230044646, -0.028107591583798882, -0.001443668386508253, 0.003874818974310462, -0.04575041758692709, -0.013648987845602202, -0.021143055212271923, -0.013228839020732297, -0.1521361618868101, 0.013601099368295589, 0.015298605921503453, -0.04692280037153245, 0.08040202873062477, 0.007877392585352899, -0.1128043500370427, 0.02410221207866536, -0.05090207031526659, -0.02090080381163905, -0.0156293254775724, 0.013760205426060353, 0.006156517207262748, -0.004861387241624297, 0.006348664003316876, -0.07204445709289567, 0.007136498637062354, 0.14312617328180893, 0.04026997016102577, -0.01249793757201313, 1.1506191147023535, -0.01515526265478997, -0.08359728973709848, 0.018616911079402203], [-0.23348417240594224, -0.06688872932327308, -0.43334138373473446, 0.11527906071048401, -0.3646906126889919, 0.1970815996706801, 0.5540429480304604, -0.41964343107635915, -0.3907196861642907, 0.2860433186406428, -0.10533273807775824, 0.30376037239660186, 0.3208811960490664, -0.34576147416615327, 0.3445501172874548, 0.17163880192840378, 0.7260417534677239, -0.26091926332987353, -0.09156686378695539, 0.31202803568466625, -0.41013851429373693, -0.40463630351976626, 0.059042273849400945, 0.5466904416529156, -0.5685821864070062, 0.3694323114653407, 0.1687216783009258, -0.3362472335538325, 0.2770699152837131, 0.058050337972347446, -0.00020747381874780183, 0.14183872967455866, 0.27298656421212264, 0.8286696883934583, 0.31816388270688595, 0.32901738606389697, 0.04024876935286013, -0.11988032262675802, -0.36652005644503166, 0.6407392916936583, -0.32498475154211165, -0.37821131753299236, 0.10793812421303953, -0.011990552576774461, -0.4088004940725988, 0.3417285072452141, -0.8775494863640921, 0.13868265988296807], [-0.09473339604939261, -0.02088579461069133, 0.01440454393201866, 0.018773068449323724, -0.03832504471055898, -0.03302107936518559, 0.16141697419370682, -0.009606355249304605, 0.04967287604691475, -0.028814322011277566, -0.03942925044699123, -0.039592188740511236, -0.015286034107581614, 0.044584441007898254, -0.028755251780577563, -0.15357941238697956, 0.0026066063829134267, -0.00011214890934265436, -0.011119347462403532, 0.006538074471029875, -0.002839435677281659, -0.005190538213547372, 0.008880795167335302, 0.025507390180642932, -0.10403644740446372, 0.24909758753711456, 0.2955605920617008, -0.0019531283786026793, 0.029386959863214535, -0.012694338516954565, 0.04876331820211763, 0.008804387788043056, -0.013983091088178582, 0.00889152220475272, -0.19085247484382015, 0.15521362832223282, -0.0031029827479553836, -0.0018508996591286566, -0.021348043199465892, 0.20109951922658992, -0.008701990867739711, 0.0836359266901116, 0.0019689839914490245, -0.014973978865746923, -0.590047986829835, 0.004940237187048119, 0.536870068349083, -0.004838550746045818], [-0.03516014946227134, -0.284603527365447, 0.009712398007588057, 0.2732332919148967, 0.03011889778720788, -0.11585915003008934, 0.6741455680167798, 0.3961668811947231, 0.15525981379906012, 0.11993824641497797, -0.3140482325318611, -0.09357139538582666, 0.06891371487211277, -0.0732020134314729, 0.6272443545689379, 0.38102139831253745, -0.3392637150175022, -0.4787059838350253, 0.0491919047539839, -0.0889324867630683, -0.5546435115831378, 0.4222586616711029, -0.1715242729473269, -0.09574710360147694, 0.2433026032437271, -0.06618466830170759, -0.08683374343775527, 0.08350474985663493, 0.29291359863122424, 0.15452243308600044, -0.07587480688319632, 0.015637803730746153, 0.014953732920015872, -0.0117442237939614, -0.4974536668923511, -0.044910127382517984, -0.27810055779746407, -0.38745266351974994, 0.2566300590227874, -0.6147360823504237, -0.047004233484379945, -1.039070771209599, 0.007094147286604239, 0.6169674901166428, 0.44824688719528305, -0.014649860620423198, -0.2349297979983687, -0.07458279169873436], [0.3100169387790663, 0.008641865465679011, -0.019662108985714504, 0.2862148542400374, -0.4458803274526775, 0.186931817989076, 0.4154442593940531, 0.08463799541976981, -1.1255094744942036, -0.044327047026718754, -0.13512540988136584, 0.46034004225673564, 0.3704606523742398, -0.326535887658628, 0.13827213036670327, -0.6640864356405358, 0.5122029947929352, 0.42592627340660927, 0.2544374174592769, 0.15999632394073687, -0.02366560891277095, -0.040924774645805205, 0.14420117997293558, -0.4553144954370948, 0.3278186986729191, 0.12192376429664827, -0.12978912799691128, -0.23227200946002396, 0.17126784665003245, -0.26001206041019276, -0.09124653036115693, 0.07879417346588913, -0.5563705183921559, -0.4402062236591532, 0.8034697206783571, 0.02053388428156239, -0.042416278401975885, 0.25159721354029657, -0.1764265016417458, -0.9734910906222949, 0.1710157244488781, 0.41052541636868534, -0.04337363915883537, -0.6037513081458823, -0.6836876446778919, -0.2609349887497924, -0.4340478918976546, 0.23773627678267406], [-0.15434382583306575, -0.00784794351916799, -0.004833601610253536, -0.013984730344983393, -0.1530335741162284, 0.008490918455681572, 0.09732760552868261, 0.0006572844028244263, 0.07588751742908151, 0.02319663591138576, 0.0018982993659386583, -0.027567872888155504, -0.04075736972519547, -0.03275085727339448, 0.26819918718947033, 0.2550005530269019, -0.004038255279168277, 0.031966594896596826, 0.033148120430186084, -0.03663812084561477, -0.06700438806627204, 0.033668386035841484, 0.008692945199449163, -0.014276459080301476, -0.2519306406262634, 0.009894528717219903, 0.11732423257523907, -0.0138059072720377, -0.20946224248652284, 0.03751435199071318, 0.07003776740242074, 0.014145000057003976, 0.010517784028726829, 0.02332997152048593, 0.07772013985901734, -0.15745502910056824, -0.11630302173524408, -0.056660341068246946, 0.09924274240559666, -0.029728630944420468, -0.005045529832244231, -0.02738790808104803, -0.04573368340499606, -0.013375633279914624, -0.5374152525964594, -0.02176368093006065, 0.1575797296451816, 0.005194599244614485], [-0.18635351327807673, 0.08241240575367322, 0.08505753377230335, -0.1558794907195877, 0.028821406659779062, 0.17364276032509007, -0.17209560940604882, 0.03304340486206856, 1.1860000926636038, 0.06159227520053222, 0.23514551322657165, -0.0513747504958575, 0.14886056282422525, -0.2792685003065376, 1.2121741007523217, 0.11375833858643061, 0.35842086076668866, 0.03133917077853497, 0.10974030369919781, -0.08532220957025476, -0.030773732431254294, 0.1608639054895729, 0.31711869292557693, -0.15043344887928925, 0.14703240449698343, 0.12360610188193322, -0.06096738909050979, -0.49893764729444656, 0.8230805938526982, -0.015941632371685072, 0.08972894822629107, -0.023942618114498583, 0.197731635738651, -0.4109900721422, 0.3176022048568485, 0.20995486127736893, -0.9724409076943392, 0.14744160912223997, -0.571421575648077, 0.3715394177705788, -0.17445752584751223, -0.6053015011006143, -0.11281309393152732, 0.2309615308472214, 1.0462116193173252, 0.012667336469997103, 0.03165244627430939, -0.03733235546601906], [-0.2975602569378222, -0.26386152238223876, -0.0915128956099375, -0.35141465564884383, 0.054570083476602964, -0.0806750390866586, 0.48482440046476194, 0.3630703550252957, -0.4317086026414636, -0.04206500566756598, 0.18717409298824778, 0.0454432671805144, -0.09771577227129206, 0.12429050142910879, -0.19269715826545486, 0.7630231870601022, 0.3081404734374489, -0.23271221383079618, 0.019573888590572536, -0.23954076815140699, -0.3330030858518024, 0.48831813341146424, 0.03471033518684496, 0.13147364797963562, 0.18549915696582936, 0.1853943106391837, -0.01833865162476111, -0.06981983502666912, -0.14011806554934902, 0.2983607127355164, 0.13456738187312747, -0.07174195957423131, -0.08336229106516588, -0.3312739202146182, -0.19460976633671673, 0.013006922017316585, -0.22932924576019525, -0.029160138437227198, 0.32855771000855205, -0.9309625247843475, -0.1895285538021346, 0.5817283996665755, 0.03205758326110116, -0.4452714860200744, -0.7509689936090395, 0.10158942451133561, -0.44240818754023664, 0.09990250183653335], [0.11915712041957832, 0.07429228630633376, 0.011107178641077657, -0.05314297203919386, -0.04010493709967455, -0.02797886048828598, 0.06330891684986588, -0.019775785306503597, -0.0853048289637868, -0.01682779067570138, 0.023015798543728733, 0.0453870887593628, 0.030036309733345326, 0.07842309768657986, -0.1186733025329068, 0.21789697529320226, -0.026014963770428418, -0.022012548580276858, -0.022926385825343464, 0.0018245083843779126, -0.02818730114615285, -0.010309990033401422, -0.03684092875017105, -0.0033056983553260695, -0.07210861740750685, 0.05704921113133188, -0.010176661904326777, -0.007312664090515046, 0.12016536703478772, -0.00937278588102127, 0.061745054197187434, 0.0043991944151552855, 0.013805924269551347, -0.022844611708821672, 0.08893380084933401, 0.04179795616920173, -0.011467655774247042, 0.03172988079674041, -0.09015251560959782, -0.2399379957614332, -0.011740829304059001, 0.09291627356183037, 0.0108355994842879, -0.06254714946788927, 0.26528531211829787, 0.012368190300366249, 0.6933724199566196, 0.012126518170493058], [0.10752783059055325, 0.09573125635435363, -0.20223524968517062, -0.3422845868233185, -0.6544331392749926, 0.06692018338173003, 0.040521646345402666, 0.03312577082342134, 0.8109390534196764, -0.040703845446419334, -0.07272082768835347, 0.07659661544143799, -0.10930253457759045, -0.030122064406106173, 0.06742948547650461, 0.00782744107780225, 0.12312962439427938, 0.19517542579350008, 0.20906615175243715, 0.08626275346505761, -0.601449664847034, -0.3386004633062255, -0.16570777024551667, 0.010842251092597312, -0.8704309688005442, 0.07359294593968854, -0.056706515018553685, 0.37371189710393266, 0.19718848441681644, 0.32876602151400697, -0.026730360285743965, 0.21124092923183233, 0.17668053852341065, -0.6062140592424431, -0.03627457541292284, -0.18064631891926816, -0.3586950870371311, -0.44268546993986024, 0.23569652226950413, 0.9060359646815838, -0.08041721195027748, -0.09350742249537544, 0.051295567145041486, 0.13463927858681346, 0.141657808329341, 0.046924454450077806, -0.41723617225861526, -0.27556673474817817], [0.08053642907008778, 0.0616856322676264, -0.23715510631610517, -0.6918986739480485, -0.20885949728002629, 0.16062837590950796, 0.8375550892497138, -0.16785723598455257, -0.6468739157200903, 0.6486363061622932, -0.3490883877684221, 0.5102242305102809, 0.18716379628522614, -0.06204625696473035, -0.2929801261250631, 0.0055444614116625865, 0.18489546484430344, 0.11260710969571562, -0.03509220857541049, 0.7797456980470399, 0.07233351731230375, -0.1006592990028012, 0.1826317219955078, 0.035224745394703445, 0.1587279337810397, -0.14530837948981337, -0.040213442830691865, 0.09657897691792426, 0.026149131197589794, 0.09038572470568507, -0.11358911275544929, 0.06271470233871165, 0.23993711579207624, -0.35849879201811724, 0.63813969844715, -0.1424343967081277, 0.3407881287490129, 0.4372912110936296, -0.5632435438142156, -0.6129925478643669, -0.5041756106797209, 0.27519847680365167, 0.08315346632619613, -0.49625582522229633, -0.19777414623192285, 0.43756058073201215, -0.730202658573864, -0.25465888090665106], [0.05771298758422658, 0.3825199076238934, -0.04067097339293795, -0.6273621601971847, 0.02727803140369698, -0.15596233209350838, 0.9658522825389878, -0.006338326434424595, -0.6848330272659912, -0.9781622884489235, -0.10202738105253603, 0.21152638415446842, 0.12401567240583251, 0.8697797286040863, -1.3128168476429702, -0.007376163956764091, -0.17276541864424766, 0.13011691713938162, 1.4571144204988409, 0.27786101553573733, 0.5824045632397017, -0.24830881901797627, 0.44039911186382114, -0.6989919040498263, -1.005519633964079, 0.126170618944106, 0.05893088724981436, 0.17990037210578252, -1.0425646430150675, 0.09393053346383903, 0.0999353313881107, -0.641499660340025, 0.007406019593730864, -0.2114214527162216, 0.8605512738799914, 0.01466964049983753, 0.8302562933291285, -0.13702575191814945, 1.0011135797064972, -0.05017179947803335, 0.09682346413615668, 0.1386090995277303, 0.09992572995356391, 0.4733255929104661, -0.6305130624870163, 0.1493508131337793, -0.9876005678199643, 0.8683935452585211], [-0.18853466976472563, -0.11547294449541463, -0.48029390322207455, -0.6256020782164523, 0.04529909973259451, 0.19110045549238067, 0.4013638345420821, -0.22817225618371126, -0.2657557974904809, -0.4374152514902758, -0.06722011273384061, -0.19442845931598415, 0.0018251798518324088, -0.3160110068444264, 0.0205150073206043, -0.2811654796485648, -0.14053347075506517, 0.1668677787608175, -0.1533222650652897, 0.5059961430519374, -0.18845772541578296, -0.14099497273490158, 0.6164962126815141, -1.38611584510375, -0.9514340917774865, -0.039865820888964294, 0.03757738297994552, 0.06901863146542174, 0.1523735775972955, 0.20773109427876002, -0.262795303901595, 0.3724544811020008, -0.8731849940215965, -0.02112706938470689, 0.8450032229113071, 0.09292399385355142, 0.2594496463530953, 0.3445307677728268, -0.3312793354007323, 0.02751785438031627, -0.4636111557708999, 0.8954345943615365, 0.09426540173766544, -0.3028832783775411, -1.2239026685932237, -0.2960323649714695, -0.7717568432317331, -0.15993393433252096], [-0.018540252171551287, 0.9278920992177526, 0.1712197022818839, 0.5766281717081361, 0.04987771361614472, -0.19521614820450164, 0.5992077626852742, -0.02445859523916614, -0.3032328738425064, -0.2169898840090018, 0.11657136604797949, 0.0016508919654488403, 0.14452414870650293, 1.2773695965770024, -2.1036604756115502, 0.1963424299116488, -0.3341837800513962, 0.06749351459637726, 0.528715845942638, 0.0003056258456708873, 0.2565951378841409, -0.031650318521236995, 0.2738078358725218, -0.12478304827256315, -0.1744886929328245, 0.0015642752444961236, -0.023131946847846863, -0.3104129897858443, -2.1751619418771475, -0.631806336830029, 0.1305460285219284, -0.26573133960589523, -0.035826331864105485, 0.5917477279157468, 0.142586586248655, -0.05796995903909963, 1.942607319666033, 0.2723667879283687, 0.37132494686117806, 1.8443436061817349, 0.4451197945683239, -0.7017985269021626, -0.2285566856275487, 0.16641371773152322, -0.5377266372725453, -0.2750467636699439, -0.45990147325000513, 0.46857296545822463], [0.04378038226769412, 0.0013273297174329647, 0.0031309038250291305, -0.015118737000546535, 0.04152001463998614, 0.01886184461825219, -0.18111594532803135, -0.009719557930563215, 0.1175203369595066, 0.018106149888199505, 0.006440282422288569, 0.028275382154787164, 0.006539831712455895, -0.029346869890326716, 0.05362087085035389, 0.0015670185725049765, 0.04954705253497765, 0.020337545481637777, -0.0302730624513731, -0.0023284846561471492, 0.08524917409391322, 0.03358031586115035, 0.009370230072587941, -0.008102881052108915, -0.0362424095605741, -0.05621409151553246, -0.05230755277011699, 0.034111178113627225, -0.06119905007150954, 0.006404676687922041, 0.18885135289460633, -0.01966801556086688, 0.01786102098442834, 0.05970773206220199, 0.0780671722210494, -0.18856399711550043, -0.02295865646299238, 0.023427395564227172, 0.034525167378670195, -0.3302549798800773, -0.00010797594399816312, -0.0036279838173413274, 0.02544130604277431, -0.008300986758885005, 0.1955793801644529, 0.01641998157436413, 0.31955716398424144, -0.016309171018085353], [0.29354179592889684, -0.015600059456658046, -0.01262337793742637, -0.01726777259736664, -0.010900564491950746, 0.030856724028629413, -0.04052208705550536, 0.012355330532989104, -0.07201857578536429, 0.018299106590126804, 0.010570831629871274, 0.02662434377205919, 0.020316215883377495, -0.004157144485632829, 0.015116694391119472, -0.06283616429435845, 0.022147669735507, 0.02027689798039443, -0.006856016128466769, -0.00973984279933213, 0.05596850779602107, 0.026801670719208127, 0.018525828049176234, 0.007764081041463359, 0.15835413665650755, -0.07668944045423669, -0.13934810862043157, 0.04118465272154697, -0.02214256339595805, 0.0001445730058946608, -0.10315796312602694, -0.012988817016449555, 0.015447744551790024, -0.01054734697148694, 0.028125851381793795, 0.01526312382320629, -0.017027988856871762, 0.011305210387390366, 0.018321172087174556, 0.0813909515626175, -0.007887456772534863, -0.12421079462565401, -0.059400150500492147, 0.016815209052231772, 0.49053365109811686, 0.015591153591110646, 0.19200971389107463, -0.015547232912454006], [0.06453416465016926, -0.5306820747801698, -0.26469514390851795, -0.02592798820168937, 0.11997049712951341, 0.1564405905925726, -0.22172979951551178, -0.34859522154507294, 0.5027166117423881, 0.11387842441779972, 0.05508448198077689, -0.014116149128905792, 0.06782585382935051, -0.8972610158796077, 1.549020700061326, -0.011840154311363984, 0.19374442555207816, -0.24343884703084737, -0.45270623097429386, 0.1278936748746446, -0.048359291216241676, 0.008003540088040823, 0.372883757364762, 0.13477802395830624, 0.08213851155984006, -0.028780444471895126, 0.03365924566834904, 0.2398832447270038, 1.0647855810982927, 0.24267689590155614, -0.09828734099635061, 0.33225384263821406, -0.08659245083043947, 0.4413542601639046, -0.10812552558924672, 0.06231949118259036, -0.3916628433603402, 0.2606438632074551, -0.21131826016475083, 1.3361777533767336, -0.08547269171331108, -0.28381556570710087, -0.23358591010007373, -0.4181660005864665, 0.16874091829873064, 0.010646173712182721, 0.07084244850963621, -0.39487622984227116], [-0.09634928291100961, 0.2766402459535226, -0.011009411736005963, 0.01801334127454741, 0.02666323425031107, -0.06798861448550744, 0.009023387427935068, 0.00032548505798126305, 0.5952841433256173, -0.07070106002673733, 0.11168631043940971, 0.09946513793186186, -0.022027448970596407, 0.35594776545377077, -0.48525210898647797, -1.6265409194272435, -0.037765999840156605, 0.6046335788083943, 0.004450826097521909, 0.05124002242986742, 0.030356656320405063, 0.08544018074417706, -0.0450618271379187, 0.03324035916813318, -0.12453467226155952, -0.1421809817936525, 0.017871579853954885, -0.018258105713988088, -0.3457217559538127, 0.0004981082094667199, -0.014507134639713109, -0.02410526556366636, -0.08132187980175869, -4.85118180244392e-05, -0.04067939975003949, 0.031615728468621214, 0.36934588344434166, 0.010868421857278284, 0.22704785280659728, -0.9418192145139539, -0.006695257429419476, -1.6644240780218376, 0.03498041183378653, 0.009669025474332503, 0.23878232322287865, 0.06996136952100329, 0.03002591001690856, 0.024909355629288383], [-0.13416634841005115, 0.3209150859928036, -0.07069038038035992, 0.3207880119661785, -0.19604928108446615, -0.3829509448310696, 0.5092752530187648, 0.06169145699326637, -2.019154912420536, -0.22748448384079242, 0.012143177451663986, 0.21845930148569903, -0.1830252157621606, 0.5770527418280591, -1.2516704451167682, 0.3213393216140395, 0.08890929165001407, -0.2327258732059069, 0.4296633288970645, -0.4590325820837294, 0.3115864821337045, 0.10518712415884833, -0.14309825349855002, -0.06464912878177548, 0.10873657300312538, -0.15429127553719807, -0.00040560306873492946, 0.03643326695069438, -1.1184800323528414, 0.3758439494701749, -0.09114979918140254, -0.26391165024855684, -0.3881562304138692, -0.35329657017512145, 0.5491667086480061, 0.09649301576240413, 0.43050475223929224, -0.06667805785049292, 0.2252474300596525, -1.4989265884203686, -0.015770420454472085, 1.0497617534955341, -0.05005487033452744, -0.47036207709102484, -2.3112127609462494, 0.20138301527426142, -0.4830383692019093, 0.2279010500128294], [0.010031937697874914, 0.1280635395150404, -0.014805775507981383, -0.09738607811761905, 0.06333384652410362, 0.016167041137891153, -0.09014183035410091, -0.016179598661864848, 0.31622741297515267, -0.0124121904648857, 0.020899218064441765, 0.04519576307980815, -0.05194167700844305, -0.019104924140814408, 0.13473634697215217, 0.01638984127857176, 0.01631658588555186, 0.0035537312738169063, -0.10334910813248463, -0.011362214720908701, -0.0035833452575251413, -0.0036259118316020657, -0.04024227730953412, -0.013068336135300068, 0.08241164121740217, -0.12565286301569967, -0.13789768683609968, 0.00858059300419272, -0.09953502849522078, -0.05538929809996144, -0.007673251073854402, -0.031905604931948314, -0.07974843175186777, -0.07267338394881931, 0.3707258852530383, -0.044060519783678136, -0.07866917007081445, 0.05976826441671543, 0.008226729688405422, 0.015571498897447005, -0.036601672729965194, -0.14881316046492224, 0.030403853741537614, -0.06063190616538851, -0.05140083473203201, 0.017567572297078303, 0.06919621932323232, -0.0016965544014335677], [0.1395408740617883, -0.01914273136689438, -0.020883940124644552, -0.051359436552383037, -0.24111481807704932, -0.03393906635608997, -0.3619601161409815, 0.042987384155804956, -0.16870944147186148, -0.07238001901468152, 0.008377568001541675, 0.1037447798995079, -0.007260467002491089, 0.007725670640195123, -0.05049637433448377, -0.3477224854441746, -0.089376260206063, -0.029037321000051214, -0.07099941155845269, 0.0040521154216776965, 0.04925621224809984, -0.011615398778558439, -0.04427592837379197, -0.05223559695783476, 0.09133781608076072, 0.10370761125150108, -0.11385111505317862, -0.03381750068818938, 0.048213141573539314, 0.0025964223234740177, 0.03721971213168056, 0.03544349728108227, -0.08814446381839401, -0.002077624248735792, 0.6503130435376983, -0.12419892086959979, 0.020631885547430832, -0.007602392272353836, 0.0037004257166157717, 0.6438609034331376, -0.054730553805739046, 0.25564008509769176, -0.14589759612541994, 0.007032939936676313, -0.5874544467899717, -0.027069572631429187, -0.04058240972359501, 0.00030119408400131726], [-0.3660522281345884, -0.061797360187983714, 0.009851630368819147, 0.08951016863255278, -0.005898550536160518, -0.021025979544474122, 0.13822935848437107, -0.008516125040850142, -0.5073966652792649, -0.016917225171078753, -0.005236808728889155, -0.10786940699119929, -0.008683494687058039, 0.002733089430681272, 0.05692674446971647, -0.1104334276100063, 0.02473574257010961, 0.022925794318707213, 0.09288100060968417, 0.030435591101288482, 0.007324517063946458, 0.017018883144900205, 0.011326679896304167, 0.0017055065405511224, -0.16547621113760452, 0.18489527315338863, 0.08839894816846894, -0.01397573649763589, -0.04155949915444007, 0.013201922743221713, 0.009911824608177503, 0.021482984090494622, 0.06625639468543931, 0.040928223080932136, -0.22156851516311718, 0.17791386664241976, 0.016844790828368653, -0.04190930779004118, 0.013227032192777355, -0.0524676978317487, 0.009129603804786902, 0.12471690799817414, -0.011748119593617807, 0.037759275788437414, -0.9345800172374049, 0.010953969109775278, -0.4175363307533238, -0.015194136856725377], [-0.1422053365766332, -0.5682537481570106, 0.5934717063770285, -0.3236303418823044, -0.07139962046547023, -0.2667863892975868, -0.9092251175765416, 0.5308375400352993, 0.3297048020804034, 0.42354652604420834, 0.0626767750803145, 0.2096487448032939, -0.5435514906084707, 0.3133680200413152, 0.19037384717657554, -0.17796844817601432, 0.48746428944164055, 0.14800669682375212, -0.08963101578914649, -0.8913038842392095, 0.35085964272357484, -0.2524995939647018, -0.3816412904518732, 1.0139913199254105, -0.07133685093311957, -0.09638279500168245, -0.0008699926577006499, 0.053252643995656546, 0.038453946393501574, 0.7442993052184884, -0.13364311337527895, -0.5557921322540795, 0.5880470125673003, -0.21565114010524655, -0.8952101457318988, 0.05114496382098077, -0.2590292120383989, -0.5476206273782364, 0.16833169236712467, 0.25790453127138224, 0.2153070812309694, 0.23221984072142707, -0.23400074001922505, -0.6936010261621465, 0.07725445193727433, 0.3719573181614162, 0.46159974435302936, 0.23520230663732428], [-0.07036096709574893, 0.156025948513236, 0.15779448984944938, 0.3476675817185043, 0.30620381237050565, -0.2328930246021921, -0.9540376616487152, 0.057399741395669154, -0.04041889096023132, 0.18945667753453588, 0.13684801688767373, -0.07996556383655068, 0.10890091896926322, 0.5927473357686364, -0.41315949879019837, -0.3054807362874683, -0.439072596672973, 0.12183228173810347, -0.27954220301693056, -0.20350980936281468, -0.169155726939182, -0.38636757486991125, -0.05767425618519206, 8.669853831027316e-05, -0.42822210776217406, 0.1751589667892297, -0.04886837424322071, 0.004949276159764536, -0.6180289919230126, -0.08775607700135037, -0.006192508017720186, 0.013746148421508687, 0.24150788038832008, 0.5038995323839626, 0.2503651969550478, 0.0738204206097033, 0.4670989873364163, -0.09841769694061209, 0.5438923779168088, 0.40253592202248156, 0.07033738191120484, -1.0855549333363765, -0.13887597469626745, 0.14025488974500552, -0.2126240450506543, -0.132733678469317, 0.4117022183937863, -0.09232610509301213], [0.055436387431234274, 0.07291046894027603, -0.015430317471975864, -0.04218522591046515, 0.07830915058981582, 0.026811205494455988, -0.032642215424756676, -0.005102083809897151, -0.024906234929663394, 0.01403040084394221, 0.03594464970416808, 0.03609726919449346, 0.006872289974840593, -0.05038533834681052, 0.05194472493188416, 0.11013559222156422, 0.00951639759151974, -0.010138396765527686, -0.0209279692900921, -0.0004773605275457663, -0.007300412486129761, -0.013599275542906138, -0.028818604559707812, -0.029745108665493448, 0.13601201263167834, -0.3022928772949094, -0.1784187484933312, 0.010896970229409433, -0.047533419170371606, -0.005768466322408887, 0.013497614942300229, -0.020523231867268298, 0.04889521091811802, -0.01942048568747626, 0.23855510053297138, -0.31852031639628775, -0.010988057232325722, 0.04316877659035742, -0.013740741302645297, -0.08794073538288881, 0.016384056676549442, -0.16779610651574992, 0.04603444414696634, -0.02573228703425987, 0.2156290389434314, 0.0006673715300382298, 0.01211350641371148, 0.0026763931992688553], [0.30233775376989597, -0.09870805897541762, -0.028343330955862223, -0.32610647228145356, -0.07795178654693401, -0.12498858205197921, 0.7828846347934495, 0.16745275320989386, -1.2492459651112635, 0.41628383985485345, -0.10075301176240166, 0.0878835735913362, -0.29622137429525486, 0.14864684647958468, -0.6708932087318131, -0.03430826848308101, -0.12134295554344632, -0.04226762018151264, 0.06125682995976148, 0.25681021755608013, -0.197609508228734, -0.12923942176846898, -0.24176796116646437, -0.27032185917472434, -0.49685112017655103, 0.16183857928715892, -0.1527137852310031, 0.007778122887972515, -0.3133277748544571, 0.12533255147071928, -0.14413419165223107, -0.12057711462300304, -0.1335507038020401, -0.3330139414157297, 0.13395646065822653, 0.2880633154105482, 0.24368835931226399, -0.024762899821270553, -0.20162733509508315, -0.7615822898890042, 0.009572739066687187, 1.1079287247607694, 0.145374562270941, -0.44514858525427, -1.3829857222092254, 0.20966609143914033, -0.8350576517580988, 0.17409053241695738], [-0.06438487135885994, -0.05555882550465095, -0.01920932293201386, -0.003150581861712933, 0.007729601473524646, 0.03218840036796531, -0.3330434804182031, 0.0036600148985882833, -0.19690253518959028, 0.012577068277471471, 0.0033180492421461083, 0.012726920901171737, -0.018302874993110924, -0.06528538651315287, 0.14791470303152185, -0.13263995226113912, 0.013508990396412703, 0.019959763831614994, -0.003909501245898933, -0.010406378851178927, -0.008248038746609674, 0.014823463635002806, 0.013194018851856974, -0.0022151860567757612, 0.17749331059179566, -0.07114853096992614, 0.03651381837427838, 0.01559796709254245, -0.1477102435901487, -0.011722370023048927, 0.08523472962592114, -0.006882597903093642, 0.05841221317489656, -0.013409956089688835, 0.09591992892481324, -0.0757903476392171, -0.028818793051046013, -0.017883949859340175, 0.049300488908399824, 0.03780426071098049, 0.02045306150834688, -0.14146105373316828, -0.023022224614871505, 0.012266074512742375, 0.5742395375591408, -0.0055054085009943075, -0.3993901532758099, -0.007712557184016835], [0.10417407596807861, 0.07531637002121225, 0.003074164233761104, -0.0436785946620731, -0.031592525659445765, -0.02332847518523751, 0.2159878731179024, -0.017699294542783756, -0.5654361843410348, -0.027747423006637947, 0.0036815249300848093, 0.0378207250179736, 0.013229733402161142, 0.08078831129699615, -0.11476742797926077, 0.26579859401257955, -0.02006918529254576, -0.007760107217533785, -0.024123864582825442, -0.011726040336844486, -0.018270335032531514, -0.00020976181821430066, -0.02107553645783822, 0.004582394864612236, 0.08189976271318627, 0.050460456668242164, 0.048641901460785536, 0.0030164238369247364, 0.11489471030466836, -0.018339506962258816, 0.09069962859073431, 0.005387510764019972, 0.016284125790721745, -0.020666876476717506, 0.10134796731219611, 0.013140294023933418, -0.029159368811637814, 0.031745462802211064, -0.10918421910961496, -0.3229127687990406, -0.002729476994987131, -0.026847577528852848, 0.009485203126922633, -0.052935219711976754, 0.2667207642829723, 0.01380032833997382, 0.724034685151854, 0.014854888256697474], [0.0021297960789969316, 0.4298080489053621, -0.11475981058533304, 0.014108635040235334, 0.03730435432699621, -0.057553205591090326, 0.4912747953934912, 0.2575463032787817, -0.9202754583714436, -0.060904062055705595, 0.231116524706404, 0.25575004727628214, 0.18571986093907497, 0.3692717196495277, -1.4665209464960967, 0.08049302288856533, -0.15255271667805445, -0.06535424848837731, 0.5807822232257893, 0.06312980329970194, -0.31289717559382785, -0.014544667088703852, 0.29662514917483096, -0.631343690016331, -0.360200277059826, -0.07802875839046976, 0.06834793730908087, -0.13688595453158262, -0.5954823105518532, -0.2312682513230053, -0.13719020704688978, -0.34896080732379303, -0.8970588385087765, 0.47604582991324546, 0.25961002390050764, 0.1009161767182898, 0.20904625411167935, 0.39349456712026776, -0.17776592743700237, 0.879699033225438, 0.06548408239284698, -0.24487374726471434, -0.26109698746261273, 0.07638566011086448, -0.5352145314771332, 0.16442673017259019, -0.24540549553107888, 0.2811491647535395], [0.1536384353584706, 0.04836203910088567, -0.008095277815845738, -0.06171558117923806, 0.02155977144419503, 0.03186574303585433, -0.0979339022312723, -0.01009868321528775, -0.3713487099515444, 0.008766624000114923, 0.015148510311290116, 0.08486079246329396, -0.0010970226693001216, -0.041588933490218756, 0.06500100069358715, -0.03179628326187304, 0.02202237332380464, 0.005534211299580783, -0.07528371718548216, -0.0070299099883794755, 0.01662410939769557, 0.013540704555614165, -0.030808414061355746, -0.024236115127473118, 0.027700918552309717, -0.0614410041409194, -0.33041740987752805, 0.03475292066079145, -0.07055754517296269, -0.02395743452683793, 0.16744990146535352, -0.022820973406822053, -0.0038471817466934257, -0.023232612042441574, 0.2753475638178675, -0.1512613464414305, -0.03340269410246146, 0.05678760635258556, 0.020614708536579908, 0.18192215921240426, -0.0006720376815390339, -0.1815846095258574, 0.002369986784149813, -0.0582780673997515, -0.9033276419824586, 0.018535273271753385, 0.2555362578650061, -0.0020116913061206804], [0.14060519769502589, 0.08254301772166737, 0.017453446540762453, -0.0626443317376512, -0.020306001496453698, -0.015655585774809175, 0.07108644654616, -0.0038266184691214057, 0.05040841665081682, -0.005425379981465382, 0.03392961159688338, 0.03164780551895371, 0.027941818735517574, 0.030000561890396085, -0.07391532109383116, 0.18352786071384347, -0.013565944369482948, -0.024791782164763434, -0.03118525257158068, 0.009643997589875396, 0.002193623354386808, -0.017695448656747072, -0.045377106371291026, -0.021987923570488992, -0.18375206866532606, 0.00822013785457098, -0.17306931621035107, -0.010808742756314414, 0.08271728710915666, 0.007330611724605226, -0.026031736314659173, 0.004767855226068376, -0.02203861490083346, -0.014949761002990409, 0.10003124027451686, 0.07030428541877619, 0.013098269812060736, 0.035103638724338755, -0.04636138102217972, 0.14740353425134595, -0.01935594652551306, 0.02046806364106488, 0.047160254473549816, -0.05217032257583333, 0.6147074584173422, -0.004971340827014764, 0.2802452750376878, 0.018374113267846184], [0.06769910296940013, 0.03990590628867587, 0.019907742686112506, 0.3312399783731534, 0.1758371326885733, -0.15479600911749206, -0.5310052961640838, -0.5258634110167956, 1.6449693229987892, -0.09641148639682509, 0.2628580570472527, -0.34764129205551625, -0.3793050732477726, 0.035862919977220686, 0.45075955686430885, 0.206138591132825, -0.10056553762550018, -0.1556548605628974, -0.366312805247258, -0.3225644688167395, -0.35893777880262984, 0.28128894900181073, -0.3012573159115663, 0.8007970120226898, 0.4921027464674918, 0.3208611573288345, 0.0508041820507425, 0.158922316761362, 0.16022077860083034, -0.14620415151613167, 0.11843367668284323, 0.16561669423968542, 0.5098749230653439, 0.44732087186073705, -0.8773818239244775, 0.3924219058820742, -0.15970888618637447, -0.36463678075573275, 0.23863696522382233, 0.6202481134287173, -0.03579170340478846, -0.5663411799350666, 0.2657211498284069, 0.5962896003384569, 1.4926223508290535, -0.21568437411533642, 1.2771536115269444, -0.16088207459406723], [-0.06526934877843857, 0.7285560176973294, -0.34450253245471774, 0.2675810061632738, 0.10231979087521594, -0.0913689121601003, 0.2077452251874239, -0.3673312116975718, 0.6644799442362108, -0.22074670538569868, -0.0960245440212722, 0.23117987949674304, -0.24180325878108916, -0.3276942447132315, 0.17767364951818349, -0.12461813173294255, -0.43414488692646375, -0.101997080493066, 0.08304938065481045, 0.025305240585134822, -0.7612789926191603, -0.03155746180038901, 0.03982140805575916, -0.3984712628887884, 0.6166655451329707, -0.17176218035508461, -0.07527199345699966, 0.06905767926736087, 0.013803273894403643, -0.01604710897265482, -0.17059146792859045, 0.18819842637969442, 0.6410812756299392, 0.31878282732642466, 0.04064116323323889, -0.018395908558254355, -0.14442707650823555, -0.5614016178277056, -0.32403380483238436, 0.4484618147113153, -0.14151585571725595, -0.2982829655317814, -0.31833617453250446, 0.147592471458512, 0.36284322706820427, -0.11526605658438939, 0.5770218062740583, -0.2443892720051724], [-0.13635027296259875, 1.023876777290519, 0.027630663773280925, -0.5179549483280114, 0.2719928742793006, -0.17865110865116274, 0.8804388764370883, 0.09386996452485284, -2.087764158847021, 0.11442713404799337, 0.006017176680824573, -0.0906638860627196, -0.14901887883588968, 0.7587644344565709, -2.14258859786991, -0.1884107972320498, -0.24875655707996347, 0.06463831407616155, 0.09421996588533621, 0.061977672998041036, 0.7542434819107974, 0.10648746690922432, -0.022480214241262644, -0.2344956622371826, 0.4898198252239919, 0.097689688657456, -0.0005251166192491112, 0.28938072383341296, -1.7137475650999894, 0.30898237514391, -0.04238448507712332, -0.03225886716237024, -0.635089078601655, -0.36163422986705906, -0.034159830201895454, 0.115071572032373, 1.5078482868840732, -0.14786937983656567, 0.5698052757927695, -0.882676757570709, 0.020545235323722398, 0.5489235415535116, -0.10906334266739444, -0.43486908963656373, -2.013332752231118, 0.08131912950576997, -1.3600590806761128, -0.0016992174420181897], [-0.005808485662852822, 0.5607501972564944, 0.17042561623795294, 0.038641141957564226, -0.09733576683391952, -0.26871078751768723, -0.5057186048273272, 0.16453178364190957, 2.161546548809068, 0.9359549609814898, 0.2701502534317121, -0.15545946480916994, -0.32200814382250065, 0.3552602148042269, -0.3815170959577394, -0.13905568788626052, -0.10976840874864979, 0.12008543997662888, 0.28686899652367964, -0.10113923519617227, 0.35625117694987624, -0.03901489091407582, -1.1591867242533689, 2.4568720306970224, 0.173665196319361, -0.030493808980041146, -0.01482030881858125, -0.037239616229134916, -0.7370349547039575, 0.0802487558528338, -0.16549423715462405, -0.06579324050917759, 1.2850331936812311, -0.005169771207637117, 0.200433457160632, 0.023944871063510897, 0.12643185717900307, -0.25423006581910434, 0.09406428701835086, 1.0707425498631689, -0.04662233563928494, -1.0376674662628473, 0.722908244094308, 0.5284230402118706, 1.6666977387525073, 0.3918148124845479, -0.29379544508535566, 0.3323290120995466], [0.02653615736969508, -0.8960667921569606, -0.0008710055547038895, 0.15744744417891907, 0.025141697929542548, 0.14893615500917892, 0.3739739834637433, -0.06299964645363036, 0.6281206483049514, 0.1383617742764322, -0.10615379339445775, -0.16260441419795443, 0.08484246600523583, -1.048963601921915, 1.4568625561997472, -3.2012052944089087, 0.01174197947605902, 0.17279918402754946, -0.2062265023238526, -0.004542939622334565, -0.17871306011090615, 0.33323533901677876, 0.06234254672390437, 0.03756821465085779, 0.5241721890740016, 0.22695543409880692, 0.01618841628184988, -0.058761939735898897, 1.3423266757374899, -0.06600685653321518, 0.009025598820597993, 0.07407729318815355, 0.1359773400730826, 0.21393166038944136, 0.0467345045298372, 0.0012910743463638208, -0.9595803162513432, 0.06994919746464738, -0.7099038543623253, 1.7397161534988075, -0.05910696279696897, 1.823298669037188, -0.02697009213904867, 0.0006432226942664693, 0.7764526973177923, -0.029463371918437967, 0.5043139977248788, -0.12435918514806077], [0.1059214299290611, 0.5167443536896127, -0.37703780532101244, -0.06702140298339716, -0.07040160699827995, 0.18791004853453977, 0.24024791679707871, -0.09620818254942065, 0.045272089699942855, 0.10271158146847612, 0.09893159677332775, -0.25024770243713934, -0.46289044041998656, 0.49881721429740467, -0.114818875693244, 0.2861886021242773, -0.0053630045160427625, 0.011709039623030437, -0.4285040973867472, 0.1643616559754558, -0.07299784309966989, 0.09825536068727449, -0.036772381767726084, 0.5129115381541073, -0.5208028718276042, -0.04742270110777552, 0.028391894531626435, 0.43331480922133514, 0.04935724564785707, 0.10557694898394944, 0.05409164257971103, 0.33071158718571714, 0.8364521684502481, -0.07682882914869735, -0.13318537198242786, -0.29681093845795614, 0.56432306496467, -0.16882963753474806, -0.031778341795909285, 0.27342055050300074, -0.1689964546470405, -0.9809869797759689, -0.11348816665488058, 0.030609857288026853, 0.8490738159160575, 0.42222345568225833, -0.4090255116415518, -0.32922589587844614], [0.12199302037203028, -0.03445851708182447, 0.5375061842114591, -0.3028737818386218, 0.01710769693924331, -0.10314122071026768, -0.45121416271412246, 0.3518399332625562, 0.6961466529186747, -0.25435222522177886, 0.4297255534909754, -0.6352756624985334, -0.36702786056681364, 0.10686707928633445, 0.01484319809138356, 0.6361550567722226, 0.1812648106522279, -0.4791963795501032, 0.0684962449966492, -0.4279237216362176, 0.11997573318982006, 0.27750800227995487, -0.10517003197689156, -0.09514929269354591, 0.42894899318787033, 0.08514129889517766, 0.061080993839331556, 0.09554744420923506, 0.0020953519627351933, -0.006967050718333677, -0.18069377642788548, 0.013459980655801607, 0.28241069003780933, 0.14415484006414972, -0.42395257161841404, 0.04910083573138514, -0.2900820137349777, -0.48340667483817346, 0.3007157110339816, 0.4729183564378462, 0.2578071358934912, 0.4469031039786818, 0.03237544184021872, -0.05783903411805846, 0.2442921431858328, 0.057720806425510036, -0.09662941435721585, 0.24693365374194895]], [[0.008330847013596248, 0.0026992247487530713, 0.012031080968328715, -0.0037389976019121807], [0.13625152386749367, -0.20099369470595485, 0.14755736376081563, 0.06032463739387052], [0.20807420157373832, -0.24200102598282003, -0.40006327752202553, -0.034735806200966016], [-0.3351609092573535, -0.328016891259369, -0.1370870117466931, -0.08383933224858883], [0.06717056154587575, 0.009825210082122579, -0.006328922220063591, 0.10240444170484622], [-0.27240420799250353, -0.04230766569433902, 0.1493685754276805, 0.0892332400763782], [0.09500958487061249, 0.39486170372959756, 0.2688034659448394, 0.24914155840154237], [0.1283884965128796, -0.14067526912322995, -0.3498492797529863, -0.13250714656274548], [0.08040697796722111, -0.3570280215976426, 0.12477231102991887, -0.17462280813828052], [-0.05265529807686329, 0.11728183954427812, 0.024711112230905444, -0.05705778620997781], [0.1702590438756717, 0.0646648349077813, -0.08766959627632202, 0.032103616373669326], [-0.17577410506971866, -0.037564305411263696, -0.09673189868544196, -0.28161649269647177], [-0.17949831258517324, -0.21061578511759357, 0.024616092665455006, 0.04075941712686021], [0.07570447418505111, -0.4226414134279329, 0.2000127381124406, -0.021592275034958534], [-0.05052981158703945, 1.3787640395774068, -0.3175182373974561, -0.00690773971087233], [-0.018979561624473812, 0.003172164081643902, 0.004357924780756412, 0.04557222838631518], [-0.11537158034979339, -0.022669872515670528, -0.11603164238564648, -0.041831153026286254], [0.05894888433910116, -0.02175473142038251, 0.01402116871085185, -0.2606271562941121], [0.195149884363929, -0.23762834879614558, 0.05098186081592401, -0.42439878730207337], [-0.19036416276094062, 0.2143423488888467, 0.3930492660449481, -0.023648785540312384], [0.16907170803632324, -0.07861169585471241, -0.10551596036823033, -0.15853418351516377], [-0.041662953938782346, -0.021785509867958353, -0.09428916161767135, 0.3822559841604379], [0.018496925991680083, -0.13913741269449229, 0.13455687409255992, 0.20135515342969804], [-0.18800897186090132, 0.4368908625242319, -0.13530929335291342, -0.23416165540020994], [-0.05357890919326567, -0.4523823273221595, -0.16597444613078424, 0.21247666938988696], [0.007791921290185711, 0.0006819888925623864, 0.01550876625806942, 0.007510072334870775], [-4.083443961257146e-05, 0.00024092341482675637, -0.00130897144026309, 0.0006437336189982578], [0.15558340368873996, 0.17655981701608167, 0.020867431431939462, 0.018963843771576137], [-0.07737516379666393, 0.7765393003558, -0.3983039482721819, 0.0315991165714378], [0.1664255986100095, 0.26238461972736454, 0.0027216790386976075, 0.009409130160272791], [0.006043794698644974, -0.001966178223698129, 0.009989411886181418, -0.00029608406815368767], [-0.26678358527522583, 0.24411549099538354, 0.2973395809683551, 0.3509383424782331], [0.3786985597782464, -0.09748755035105745, 0.26160613043484243, -0.4340440191085571], [-0.017071423712302837, -0.25822823843504766, 0.2042918716380555, 0.24279861316588222], [-0.2900257821057193, 0.5261521706051576, -0.1901423265812792, 0.2565221757278199], [-0.002611740630955169, -0.0009907191677266337, -0.0029643204393656397, 0.0023432154829042644], [0.1824317526291863, -0.6506937140830791, -0.008897935004986608, 0.0771191488239422], [-0.23604648772809195, -0.23014351915843254, -0.005564513407384228, 0.09983186869373886], [0.12417536201248208, -0.18187994796672804, 0.062003588252341896, -0.024982468162250446], [0.09966772704883631, -0.23437129422611117, 0.25419925375606994, -0.04381361129581667], [0.15321983026028474, -0.1742544230932516, -0.1722927028839463, -0.08807674639964298], [0.13448501494706186, 0.34247766703293187, -0.27079240969453816, -0.10320101150708007], [-0.0911706701902709, 0.032583483227698086, 0.056330026143532025, -0.1126951830571587], [-0.10408447273513927, -0.015104253808305492, 0.1136811278726812, -0.20594602038134807], [0.14624347520908046, -0.5607710108352846, 0.5541910619882128, 0.043821875734762906], [0.0018812752167450615, 0.134597632743097, -0.039528048908310444, -0.31764414185437356], [0.26927317443294513, -0.3564841733715968, 0.04556961276725694, 0.07525255338563851], [0.2221625080854052, -0.23037656017949198, -0.11716597326594695, -0.3614003536717235]]], "biases": [[-1.1254170905948027, 0.7784007553426021, 0.0003489765385190888, -0.1798866142325376, -0.8249072183140689, -1.4740648350488916, -0.08228759340354659, 7.590327111938472e-05, -0.5185459791838554, 0.42297953961690454, 0.00012412081726333226, 0.09000711369928344, 0.0008454963535869256, -0.4838999387264178, 0.14084299131795638, 0.003643587051385343, -0.9014696592951486, 0.1380618027958338, 0.0009402853387274715, -0.17113791889751287, 0.36737205304746207, 1.49741720380463, 0.4725141807798582, 1.36849550422344, -0.0005871887188090904, 0.000571418843255028, -0.9874188566964948, -1.6572572250521895, 0.8914336951821611, -0.0008199203990185694, 0.0012804539164848422, -2.9788272082461264e-06, -0.4653814375945305, 0.45286983983738105, -0.0011475592482029044, 0.5050805053854073, -0.000274644550854328, 0.0009498830851717491, 0.7035561874281033, -0.0006465561149352474, 0.000347088011637149, -0.7178218904622881, -0.2748810296198905, 1.3416464493747187, -1.1855389417055167, -2.6439240750878805, -0.01555804473118839, -0.14064828968530138], [-0.02014902682472526, 0.18756294148169977, -0.527624080465985, -0.6675952481966628, -0.05230642809999186, 0.3320697532845923, 0.9867374979119613, -0.2253847150846273, -1.2367624093005791, 0.24842115753392716, -0.5707844443000569, 0.6926072353194387, 0.005162198575555759, 0.21579861303101286, -1.0515032648746996, 0.18455697068755708, 0.2650243809854283, -0.13852537097531112, 0.6334348112247105, 1.0540179535067273, -0.2355443592411903, -0.025249589199728948, 0.2843697133347913, -1.0025222568935768, -0.9002627697839114, -0.035055430272675873, 0.08474503173996717, 0.03285346818894925, -0.7171134175657495, 0.39282906226755704, -0.04390111664960255, 0.0639388967776129, -0.5194862170947804, -0.619773607008501, 1.0530992598139308, -0.06807775518422424, 0.4249705265302312, 0.4911709854853368, -0.31774574424075513, -1.285539728798674, -0.24298733801992112, 0.6418970286953495, 0.1484570290479029, -0.5658596941908638, -0.9763686501395495, -0.15880763919396976, -1.4442739808764027, 0.015068765737180122], [-0.28169863621065094, 0.3843640057970781, -0.38221731330990455, 0.2121236474327999]], "metrics": {"specific_thrust_N_per_kg_s": {"r2": 0.99995, "mape_pct": 0.248}, "TSFC_kg_per_kN_hr": {"r2": 0.99953, "mape_pct": 0.137}, "overall_efficiency_estimate": {"r2": 0.99987, "mape_pct": 1.565}, "compressor_exit_temperature_K": {"r2": 0.99995, "mape_pct": 0.135}}, "training": {"n_train": 6951, "n_test": 1737, "architecture": [4, 48, 48, 4], "optimizer": "adam", "epochs": 1500, "sampling": "latin-hypercube"}}